[{"weights":[[-0.9215765419161501,-0.45855551596676586,0.5177130574770186,-0.493133238429679,-0.08827747950738536,0.024746555625995856,-0.014536653389391113,-1.5771427125689157,0.29290803492064527,-0.9600531568717703,0.572979138318578],[-1.4473780234583422,1.2521673001998497,0.7002472453262798,-1.1434799892114826,0.06180960404742461,-0.09485656032821509,-0.009774424820242295,1.494003181176378,-1.5895060966165435,-1.403306648804037,-1.1544654803586032],[-1.032658179428516,1.1172728135684427,-0.3920809599547527,-0.3069638773495189,0.0851159315086982,-0.066577582999098,-0.0691154504802767,-0.6067043014040758,-1.787383386550435,-1.2381968581798715,-1.8187776746970232],[0.34393577498422484,-0.22405552479679444,-0.19523269363008128,-0.1482039613839245,-0.07184692569086011,0.006308514885355845,0.08414767969579848,-0.09314877432113283,-0.2709704826123884,-0.8366949056750428,-0.7238548455079526],[-0.6052826254630906,0.08533097325273822,-0.6466553109415831,0.03505608551155725,0.01119522853534305,-0.03784092200914105,-0.009825715376630156,-0.7133333135759871,0.5335410680133312,0.37421569736904525,-0.3110156334751207],[0.04125533798207462,0.0503119789063699,-0.0462121861896901,0.03291965180894002,0.04395267500513958,-0.03323023848956584,-0.01620971816412435,-0.06412805679333408,-0.07508730362749011,0.018906450993660978,0.011282077222681555],[0.08590703101159315,0.05304691152543109,-0.03021470626361654,-0.030234228289147055,0.02737691717424151,-0.004089261818236697,0.05573555162610322,-0.030940548677858656,-0.0906396579389409,0.008652417914176315,-0.0677354361439631],[-0.5152546421481075,-0.03541874490620145,-0.19394270072661923,0.10476918450934176,0.09066686538719224,-0.015569681361861987,-0.0018911755766555932,0.021126925243369794,0.20763538592427802,0.3114825193960758,-0.361296168589667],[-0.06147032374381974,-0.1112378344170974,0.0691805959720133,0.02392688856618232,-0.0834295167641757,-0.023209788013178162,0.011524787019434088,-0.03106228386817601,-0.014993618921829613,-0.14149996318908983,0.029410722314927463],[-0.1265569970002324,-0.06083350812059031,-0.22640129017715035,0.028363344035634876,0.06516778490302874,-0.08006830632764889,-0.050199833671145694,-0.1064617215299579,0.03428652617667482,0.24493486161338351,0.17342337918560727],[-0.0002852075170739921,-0.17796458819092978,-0.35318913367708127,-0.36775623432096777,-0.009380942731952419,0.07389273211399175,-0.06677571772398534,-0.743052003850398,0.42783855197741105,-0.17545127622339188,0.4292236849389034],[0.9408740820534758,-2.267005431421099,0.9970705270340517,0.2740020536566982,-0.0007328254225407171,0.051787352835171,-0.06534372291413143,-0.1942679658068883,-1.2827882744230954,1.7960916249105572,-2.0741091065810253],[-0.13716533121760613,0.13522353886129668,-0.09325955359215259,-0.054048896940040586,-0.05457511760519407,0.050065425713198164,0.06857564065809196,0.04475080199238059,-0.17973504503352206,-0.002063417282198106,-0.10430041647034334],[-1.2873963404990305,-0.8261917940505793,-0.4500809769528117,0.5189414523192023,0.016419463887564212,0.07200767061177063,0.07719582233528474,0.8463173335999606,-0.5062915095390622,-0.4124225298586989,0.7311942792217127],[-0.33350959743777003,-0.6285195783297624,0.49441561747449975,0.20256626347391515,0.08198379663719152,0.047554952774055304,0.03366094537128078,-0.28216350108066157,-0.462372654088285,-0.6847571363114299,-0.2572349118183332],[-0.022251463998495768,0.059340045538347506,0.09323918798155773,-0.31094389433333064,0.046414698357584494,-0.08786043047884402,0.08199050199848337,-0.1826287597736636,-0.6071009153273407,0.05911126469709591,-0.30435321380688946],[-0.022182854458366166,0.04586809825358277,-0.062002866048853016,-0.01241571669874357,0.013287675995521747,-0.06953861019529856,-0.08452404934699426,-0.03378298085493679,0.04496368946861943,-0.05292459810238728,0.01824207076354173],[1.7237478107145836,-0.8257504753298243,-0.9078396647655589,-0.6379674445810389,-0.07893850316939066,-0.011588698156421204,-0.050938059013917215,1.1767430631696199,-0.10369108991629337,-2.8831603123154554,-0.9679169877038437],[-0.7645458516699057,0.22283742762173098,0.03647026466060246,0.01996502802608097,0.04147882039115036,0.0419260785382817,-0.08357246853971745,-0.2497753117465521,-0.7659494879615093,-0.6977684236692115,0.3095667144795133],[-0.2915085143889172,0.021592988353500875,0.03319783122779427,-0.14519701303667626,-0.014876504075567482,0.06321306358173959,-0.011299700123100553,0.15576108145024684,0.24449722298184878,0.029585355665996342,0.10224032912822009],[-0.44094542240422935,0.2257499689685066,-1.673283727537615,0.35077028780820474,0.030675513497167933,0.04227892221735616,-0.03174329491222046,-1.632878425574035,2.525715763568145,-0.2302882001033483,-0.5475920943925459],[-0.05934733390966334,0.02356134849904494,0.05023043773318145,-0.09246932037024175,0.08686943476469206,0.010647129777237321,0.01811916457904339,-0.09953396769996761,0.013737500278214049,-0.025345300691291137,-0.03984157437849614],[-0.11047029078520906,0.5348939219075654,-0.66435617997876,-1.1199330659925542,0.01923686161129659,-0.07715004054832947,0.09544326202294026,-0.4471080237303409,0.9362302163400352,-1.1404840015049424,-0.9409000093707993],[-0.18389876318524412,-0.6683508423788542,0.3352646016558514,-0.4170629653260568,0.038099441122646543,0.004954936121304973,-0.008921589832922641,-1.3704763340852868,-0.861226567971281,-0.5563838867046814,0.6089274109072709],[1.6626414434971215,-0.19664834863686592,-0.9775186765746708,-1.1377253281274426,0.05733454879868327,-0.005740633414886648,-0.03332947699968836,-1.0869393455887622,0.23335224759337697,-2.4179875849474097,-0.4062093049804683],[-0.8555393368998628,0.679869193705591,-0.9780665074300857,-1.061253456890968,-0.021342772358073095,-0.06768558896498474,-0.0941794724450496,-1.4364603724086447,0.06762227699808879,1.392450758812615,-1.6522503571415996],[-0.3971433382144359,0.20492562926276217,0.14627868511830797,-0.8573759933830047,-0.07754709752442855,0.06655576153558015,0.026931868564522454,0.19067677043588954,-0.5181592495978197,0.36101040797892636,-0.7016289498643588],[-0.2047839503638364,-0.4918413613316863,0.1566997694877619,0.17044597344382748,-0.02997435348185283,0.03515472584060794,0.06244325834406894,-0.36242106248250655,-0.5847045663456523,0.2346213606328929,-0.5324128728571325],[-0.12554668653277842,0.1328345374655555,-0.06341161044024421,-0.012369205831638575,-0.013914295606241286,0.018146781838000337,-0.08192041659265258,0.05057093515186692,-0.11520985958367888,0.026740745291973768,-0.08666994205833653],[-0.5616295792635178,-1.285690700395564,-0.39346837519550504,0.3479657424333281,0.08070754040350392,0.07060322257077603,0.022033118116987646,-0.18797664624978594,0.49422771623858536,1.1174852886495243,-0.9058152701807124],[0.19097575685632395,-0.5554013479225853,-0.8447767105186629,0.09275507502693109,-0.06879857067508484,-0.017469070829543604,-0.09502952126157922,0.109751605484632,-0.9371538210705699,0.1947226044313287,0.5516659361809825],[0.3077718118296337,-0.3707163390862192,0.25887676638393503,-0.630621538106686,-0.09472234907288868,0.04498986734565774,0.03604737823636375,-0.8205074604219027,0.1227146165273735,-1.3224842699815575,-1.2696158454845503]],"biases":[-1.3842951741053313,-0.7574565193788253,-0.5458148195363044,-0.25582482702629183,-0.9934480180617149,-0.07166035290521514,-0.09456741783896287,-0.6245555490917074,-0.09880501942735627,-0.3078611404479384,-0.8614698210623117,0.10698429621722039,-0.18034420594522876,-2.0973178947493234,-0.2372767011227906,-0.15486366846865837,-0.1090776180497292,-0.7149381128563573,-0.5334081387264072,-0.38062653532893953,-1.5426703447011372,-0.09179642334635477,-1.4835672849204782,-0.944643538865525,-0.6492786447241846,-2.1420021486028773,-0.7629607779838372,-0.40582192155175917,-0.21109554151177817,-1.9598485340540581,-0.9202163752807327,-0.43740442988839207]},{"weights":null,"biases":null},{"weights":[[0.07193644970262351,1.676329756660632,0.2549303808428833,0.03886666884204765,0.03405813878729293,-0.09151452094386642,0.0949563801843177,-0.06459409758882734,-0.015303705326287288,0.07041726068523381,-0.25570309996326235,-1.5565086053647677,-0.07117825854755423,0.0696216795017324,-0.06200753783557615,-0.04970829376826618,0.017874133876839587,-0.7811515645525156,-0.10428206351447819,-0.06971897612938073,-0.09506228761894721,0.06593947824235716,-0.08351820137495396,0.11583103273934969,-0.05444843554609116,0.12687360928678904,-0.032283206011230844,-0.14356457426966512,0.06759004398186645,-0.6804515509372656,0.14595524052575487,-0.4039828281439868],[-0.10983329965748939,-0.5356633536817705,-0.03674977998979399,0.30121932600453283,0.45196981142916814,-0.07090726375154732,-0.015013512303024992,0.4646592089027325,0.02925464618295662,0.006122428349617581,-0.18574836820412768,-0.4986714602568684,0.1557662037801204,-0.7417820267082781,-0.30252240140473036,-0.32104185143188285,-0.0030229719603256885,-1.4687426073158096,-0.3896901065527216,0.35118611317939935,-1.1356033598819357,0.04852609022725604,0.3900681229780662,-0.233990080971699,0.24686242176240317,-1.0301638798270798,0.2746209260494016,-0.43029992678866036,0.15340753964993334,-1.281741915421849,-0.008094291382606875,0.08887892233551584],[-0.7555645052020923,0.6914313338091386,0.01607067621958367,-0.21609818747391407,0.7043840795795936,-0.03909322085831806,0.009195675171183873,0.48895803380826797,-0.15897883604580237,0.050184928115358955,-0.21409303077699646,-0.48648529441777666,-0.045794999496612386,-0.36332847044182176,-0.24403728125984694,0.30953255033690624,-0.08688919117128975,0.7510487169745681,-0.19699072937150358,-0.22972054241689738,-3.0342932640499236,0.0845343928837407,-0.24872519824361766,-0.41717136934459564,0.19144973635331008,0.31717730624669577,-0.464135876755239,0.11830943938538525,0.04561817225282648,1.3404062680805084,-0.200801770961559,-0.47818081981067334],[-1.0543531528562837,1.2519307207179637,-1.5070755658089592,-0.5867312157166543,-0.25086665631128235,0.08942366203230553,-0.030632600657167063,-0.3863680136303131,0.08066076700533194,-0.11483391850025412,-0.15320452655645347,0.993487198063079,-0.1256390420154237,-1.0601020921960178,0.18118109186924988,-0.029934870452976162,0.06362983169234387,-0.6871482829629311,0.36817697769742097,-0.20080340302227814,0.37776930359612965,-0.08555746882529242,0.15384631026759846,-0.4045299307302161,-0.4816888147710261,-0.8846403389905295,-0.0911410199740951,0.03221472113700115,-0.09488673595558272,-0.5123786534384294,0.676218893627012,-0.8916198493084118],[0.7229416929256829,-1.0383844038034933,1.6336910561897156,0.08386358393778726,-0.030094219121067627,-0.038127360474948205,0.09710983640485352,-0.11502161320008135,-0.03806910804439165,-0.06415572342291119,0.004536247155603775,-0.0808168473509885,-0.06155002840437595,-1.0292960219759455,0.056958284281819836,0.13322862234422475,-0.07657368113331842,1.453731228721106,0.11388217054559804,-0.020312737775865706,-0.9911815458493237,0.054741775890375266,-0.3715399252685364,0.2056807326973021,-0.28833139340722475,-1.0887312624065069,0.04020182107835402,0.2306929768594567,-0.09592074428925296,-0.49180558819374104,0.2926091121515953,-0.1702535462416983],[-0.9462010825021461,-0.3206640938867435,0.626924946129767,0.3085063588625944,0.2887750086318137,0.06340814544545792,0.03632647392770246,-0.001252978242181942,0.08622943878959616,-0.10243913308176987,0.33846508395412983,-0.7034878141952504,-0.13141824834776253,-0.5834170418895552,0.31358228214204886,-0.2709428197351143,0.04219033840145154,-0.2871224392283647,-0.2789094971955423,-0.18468108371271053,1.0495183472114178,0.07915945036112501,-1.0280920125677473,0.053157470174466225,0.763985231681667,1.0831272362385689,0.16206377339886094,-0.015457384169258789,0.014351009676636049,0.9546910479816575,-0.34044991453566065,-0.3082730593614195],[-0.3428011966665452,-0.4060470900365169,-0.21736576981989747,0.03141983334592327,-0.04304148215835803,-0.03632646192115807,-0.08994791103635516,0.010821476617431844,-0.06342707739074983,0.29417177933657457,0.04788563059221874,-0.21665622375083182,0.051560579425014345,-0.5770741817862832,-0.062656202290327,-0.08480855302582621,-0.024989220103969683,-0.1656144504536447,-0.053860641814504104,0.16360414500342843,-0.32613021953135984,-0.07519133452190102,0.34485580379316005,-0.18326316545109808,-0.08971690151217918,-0.12004090761647844,-0.4974305074801811,-0.022621258122152228,0.07823841306400905,0.028326674595647916,-0.10622929723124365,0.11761227324707225],[0.18166971198834436,-0.427942819624101,0.06878418638814414,0.05278382848196546,-0.03134908940172624,0.07087969059357144,0.06606237459250283,-0.08219989346655922,-0.0798524620566869,-0.03348448502460566,-0.02133627836924127,-0.8598053072926348,-0.07616880809514945,-0.0637067648095487,0.08728656910812252,-0.13308951372040295,-0.044135608223603386,-0.2039955721339103,-0.046330873921205745,-0.01704764999647971,-0.6171340140134943,-0.05597539046929852,0.35055468930633105,-0.2855488911589971,0.010304359139325127,0.47167643093805806,-0.1095563494697618,0.008192447246450284,-0.0018453277067094654,-0.6639655214856948,0.21910103669738593,-0.032664957257054546],[-0.029321906309432044,0.2394560339343174,0.15400289550972573,-0.08022477030184413,0.19493657839391637,0.07234286750687682,-0.05637667086978333,0.13928365733199968,0.012212017750111567,-0.06281926758026246,-0.1347419292407709,-0.3251210932435074,0.052183098345576544,0.09045542563888385,0.052600116361815955,0.08761133433191014,0.029654688164539478,-0.14487054965595417,0.1118369200855181,-0.019476805977891056,-0.042118619101549536,-0.0094142843082341,0.2590151012237076,0.09292839577701474,-0.14900190046242395,-0.15083703485038025,-0.08795139364631452,-0.11585866432346544,0.04766631110595212,-0.19166756469094576,0.059927115207224414,-0.37254511194696244],[-0.30868438849813346,-0.31014716081442156,-0.7478910339052206,-0.06890226681073239,-0.6044105634330762,0.03669489595432773,-0.053205470165795805,-0.34547809668027446,0.07255922461858656,0.03420271353881448,0.259424257485918,-0.4768355069245879,-0.03450037459209069,-0.014704941241555698,0.20351164946731923,-0.1002226925933993,0.06545676790837308,-0.42644492161770786,0.1640262335589694,0.02549067253595612,-0.9199465224917442,0.07380535440575217,0.10177481908233552,0.1543543701147494,-0.32247482129562544,-0.2867883817716556,0.2409981141333893,-0.20261147379076597,-0.06758476082534831,-0.3873655556473307,0.20399214187008372,0.019197355954692113],[-0.28924014734283765,-0.3218833415464949,0.022383153268012566,-0.09600943458388084,-0.17905683347575907,0.08228125133664174,-0.036622273931534485,-0.16437947623320595,0.0229922845952617,-0.03152745880375839,0.10503235881703954,-0.2443620697390853,0.044071675609336246,-0.3061861179307356,0.2650430105282233,-0.02250506973481372,-0.09246432139799488,-0.31335639776311075,0.02901289598612158,-0.04602044619750234,-0.2726992296372721,0.08965286391474431,-0.033888414717100204,0.08271728850539484,-0.03625037994023931,-0.11405428210457762,0.07167539653095696,0.16102716806863848,-0.05724961976902998,0.09121294056607923,-0.03039519758335185,0.21441680498725801],[-1.1556185486450556,-0.8976557241591895,-0.6922976260060602,-0.546950920838377,-0.26300958478994857,-0.02500988480723032,0.07319550356777174,0.120147304463505,-0.07451976534614871,0.12111520843008858,-0.5005298863394209,-2.6017529962190205,-0.12857822095865604,-0.6508932125226233,-0.39467939756910003,0.3459974462714044,-0.0019131534100260284,-1.0924184910900199,0.31006390443682214,-0.10347765864720027,-0.39410198292997795,-0.016668360017015924,0.3644855985419546,0.12273056643520837,-2.4053921361222996,-0.9559613107162755,-0.2244187718409853,0.14258926862117424,-0.09130602588762662,-1.0489018722661247,0.5077391630465401,-0.31944635035519003],[0.9518257362971843,0.31298568490214274,-0.6803067523935751,-0.33448801889406343,0.6859335361301381,-0.06539432750096691,0.04512863313452368,0.02047945199338977,0.061074692457401436,-0.29429525989533273,0.6518529607399752,-1.075258102123033,-0.1309373637713846,0.5287358448157721,0.4020619256651162,-0.043958639672629085,-0.08934676560868482,-0.272174323002826,0.011730371474702352,-0.06358994041515358,-0.007118334127450975,0.012045014089142533,0.6117255957101303,-0.8570672200348786,0.36738007434148995,-0.8047236672112182,-0.5908546871637897,-0.5261696325600014,-0.08371847216083975,0.29495492411020385,0.13821318917966322,-1.1954045042815566],[0.8137627952199322,-0.36211254913799845,-1.7647942655535611,0.46740066875579284,-0.3831142192683,0.004952782686169471,0.02319930685525154,0.1311337656684045,0.046440297529527844,0.1598489710412947,-0.07857728010391953,-2.3339441199818207,-0.006060075036288044,1.1181762412405145,0.2176077446771576,-0.09702627016652393,-0.04219510534138556,-0.21589849333960454,-0.06145512395545215,0.13898649587236833,-1.897638569697675,0.09214590182561255,-0.6543234500425756,-0.5917040503684489,-0.5186445664978213,-1.3589140431308495,0.45633925436156186,0.19539701890672356,0.15740577839367625,-1.2592429194960857,0.749388785838261,0.05714774710791615],[-0.3080540488579575,1.4818625442935758,-0.4376353202658411,-0.10174265776349078,-0.06735809493228896,-0.01690705721815014,0.05813943923208545,0.10019551953759874,-0.014275528181204276,0.08736956091945906,-0.05634305085628783,-0.05177808873623674,-0.07434853906669994,-0.11544103787691389,0.11815800032793762,-0.013921560346551154,0.05522059223430151,-0.7988368010479909,0.05901841880875605,-0.05806053149265764,0.7158389724365055,0.08127405921763303,-0.12156438585783097,0.13554731978420415,-0.5709541892129172,-0.8733732085523204,-0.11070914263117519,-0.08621789555728945,-0.014288982403086143,-0.22132825676084555,-0.0023283371951312195,-0.0011308823652394484],[-0.6399742650558553,-0.28839037461207445,0.7892359970669851,0.06248712165515865,0.3615358857832713,0.01863607294950957,-0.06139138328916463,0.04584153034870491,-0.052019348523123794,-0.09619800506738939,0.2550511461704137,-0.5316043500165464,-0.09453347375007076,-0.6641126287920598,0.18770230008074798,-0.1174307677247851,0.030234317476844717,-0.9616495703911714,-0.21127636964651922,-0.12743073158138365,-0.31673421302588217,-0.03644544478688738,-1.1087447228391714,-0.33683170351124453,0.7793619480404141,0.7112419173767597,0.019294052243560452,0.09624329520481033,-0.1195287873033563,-1.2233253249759655,-0.10052566293686876,-0.7095293008273275]],"biases":[-1.030550621489199,-0.7354953961186378,0.6647831427376379,-0.30767395150803845,-0.616104424545614,0.6115456444792983,-0.08803917146770929,-0.6880842852330896,-0.6606815504988371,-0.021650160403360402,-0.3240231654686442,1.447953456712096,-0.8119941664534733,-0.014012752498385461,-3.5024287237833427,-1.3539972842268668]},{"weights":null,"biases":null},{"weights":[[0.5151517124772428,-0.7704709338436404,-0.8402040495983499,0.28516537254343016,0.36913117082293506,0.06282415597559546,0.404166413579474,-0.2004638539444531,0.46173731783710836,-0.7895026695285788,-0.08511774323157918,0.49324859747418415,1.2713519436942111,-0.7910048946988492,-1.523963380163622,0.14940075789812862],[-0.3156640597437653,-2.4123964784872682,-0.1598906843583072,0.6394114305574552,0.8239382844330664,0.21263597191729353,0.19443698670672277,-0.33897007830620013,-0.3732831563188011,1.0746497843169367,0.6481517079736314,1.4221643971021203,0.08399859872531854,1.4273930154570198,-1.462715255619973,0.5373885136576048],[-1.1245424663379782,0.6364029896564758,0.9454764668378738,1.1182810826546992,0.6399568062882325,1.0629468490485559,-0.9701747092539977,-1.1802405021818947,-0.14662649492586416,0.09974777047155933,-0.2002456794302149,0.9153047119906479,-0.35633488315420164,-1.0389262428483097,0.9128409038887195,-0.6761861999407623],[-1.4771498844603932,0.16803951603596678,0.8100123812286395,0.8488084636993471,-0.4469087807506055,1.2770831912921703,-0.3298857424602088,0.5466954861858371,0.28616368034626216,-0.08078780537201811,0.12018750269499305,0.4993948619202993,0.027846997574204033,1.09433142425992,-1.9982811562429208,1.089069645245443]],"biases":[4.943702807705765,3.4535653762737217,2.4920514374833997,3.145097256675193]}]